booster[0]:
0:[f0<0.0142927496] yes=1,no=2,missing=1
	1:[f0<-0.364666998] yes=3,no=4,missing=3
		3:leaf=1.14373887
		4:leaf=17.1442986
	2:[f0<1.03618681] yes=5,no=6,missing=5
		5:leaf=35.2770729
		6:leaf=61.2696381
booster[1]:
0:[f0<0.176995277] yes=1,no=2,missing=1
	1:[f0<-0.42878437] yes=3,no=4,missing=3
		3:leaf=0.508128583
		4:leaf=11.3554392
	2:[f0<1.08149529] yes=5,no=6,missing=5
		5:leaf=26.4797421
		6:leaf=43.8362007
booster[2]:
0:[f0<0.0886948705] yes=1,no=2,missing=1
	1:[f0<-0.34845233] yes=3,no=4,missing=3
		3:leaf=0.53887552
		4:leaf=9.02014637
	2:[f3<-0.146360651] yes=5,no=6,missing=5
		5:leaf=28.640564
		6:leaf=17.0085487
booster[3]:
0:[f0<0.206089005] yes=1,no=2,missing=1
	1:[f0<-0.462696195] yes=3,no=4,missing=3
		3:leaf=0.0951738432
		4:leaf=5.56500721
	2:[f0<1.08418226] yes=5,no=6,missing=5
		5:leaf=12.8631601
		6:leaf=22.6084785
booster[4]:
0:[f0<-0.153783768] yes=1,no=2,missing=1
	1:[f0<-0.470664531] yes=3,no=4,missing=3
		3:leaf=0.0511189811
		4:leaf=2.90641665
	2:[f3<-0.0661202222] yes=5,no=6,missing=5
		5:leaf=14.1146889
		6:leaf=7.0252614
booster[5]:
0:[f0<0.435410619] yes=1,no=2,missing=1
	1:[f0<-0.340020716] yes=3,no=4,missing=3
		3:leaf=0.14461638
		4:leaf=3.34694552
	2:[f3<0.180493504] yes=5,no=6,missing=5
		5:leaf=10.937232
		6:leaf=4.32423735
booster[6]:
0:[f0<0.444676131] yes=1,no=2,missing=1
	1:[f0<-0.439532399] yes=3,no=4,missing=3
		3:leaf=0.0201832689
		4:leaf=2.11305332
	2:[f3<0.240684137] yes=5,no=6,missing=5
		5:leaf=7.69659901
		6:leaf=2.81772041
booster[7]:
0:[f0<0.444676131] yes=1,no=2,missing=1
	1:[f0<-0.518659949] yes=3,no=4,missing=3
		3:leaf=-0.240297362
		4:leaf=1.11250389
	2:[f0<1.55968881] yes=5,no=6,missing=5
		5:leaf=5.39620686
		6:leaf=-1.19006407
booster[8]:
0:[f0<1.08418226] yes=1,no=2,missing=1
	1:[f0<-0.205485374] yes=3,no=4,missing=3
		3:leaf=0.0467641689
		4:leaf=1.70782518
	2:[f0<1.2358588] yes=5,no=6,missing=5
		5:leaf=13.1092319
		6:leaf=2.85559559
booster[9]:
0:[f0<1.00690794] yes=1,no=2,missing=1
	1:[f0<-0.509579659] yes=3,no=4,missing=3
		3:leaf=-0.107454352
		4:leaf=0.859853327
	2:[f0<1.55968881] yes=5,no=6,missing=5
		5:leaf=5.38170719
		6:leaf=-1.68457127
