booster[0]:
0:[f0<-1.26355958] yes=1,no=2,missing=1
	1:[f0<-1.3503871] yes=3,no=4,missing=3
		3:leaf=70.3275375
		4:leaf=182.149033
	2:[f0<0.956524134] yes=5,no=6,missing=5
		5:leaf=497.36026
		6:leaf=603.492188
booster[1]:
0:[f0<-1.26355958] yes=1,no=2,missing=1
	1:[f0<-1.3503871] yes=3,no=4,missing=3
		3:leaf=-69.7865524
		4:leaf=-180.892838
	2:[f0<0.991877437] yes=5,no=6,missing=5
		5:leaf=-496.580048
		6:leaf=-603.052063
booster[2]:
0:[f0<-1.26355958] yes=1,no=2,missing=1
	1:[f0<-1.3503871] yes=3,no=4,missing=3
		3:leaf=69.249733
		4:leaf=179.645309
	2:[f0<1.01871657] yes=5,no=6,missing=5
		5:leaf=495.615723
		6:leaf=602.481873
booster[3]:
0:[f0<-1.26355958] yes=1,no=2,missing=1
	1:[f0<-1.3503871] yes=3,no=4,missing=3
		3:leaf=-68.7170486
		4:leaf=-178.406372
	2:[f0<1.02118003] yes=5,no=6,missing=5
		5:leaf=-494.31723
		6:leaf=-599.242249
booster[4]:
0:[f0<-1.26355958] yes=1,no=2,missing=1
	1:[f0<-1.3503871] yes=3,no=4,missing=3
		3:leaf=68.1884613
		4:leaf=177.17598
	2:[f0<1.01871657] yes=5,no=6,missing=5
		5:leaf=493.021637
		6:leaf=595.291504
booster[5]:
0:[f0<-1.26355958] yes=1,no=2,missing=1
	1:[f0<-1.3503871] yes=3,no=4,missing=3
		3:leaf=-67.6639404
		4:leaf=-175.954071
	2:[f0<1.02118003] yes=5,no=6,missing=5
		5:leaf=-491.956726
		6:leaf=-591.368469
booster[6]:
0:[f0<-1.26355958] yes=1,no=2,missing=1
	1:[f0<-1.35626483] yes=3,no=4,missing=3
		3:leaf=56.9686012
		4:leaf=167.146255
	2:[f0<1.02537227] yes=5,no=6,missing=5
		5:leaf=491.007111
		6:leaf=587.776978
booster[7]:
0:[f0<-1.26355958] yes=1,no=2,missing=1
	1:[f0<-1.35587585] yes=3,no=4,missing=3
		3:leaf=-55.8089828
		4:leaf=-167.221329
	2:[f0<1.03310847] yes=5,no=6,missing=5
		5:leaf=-490.035645
		6:leaf=-584.231995
booster[8]:
0:[f0<-1.26355958] yes=1,no=2,missing=1
	1:[f0<-1.3503871] yes=3,no=4,missing=3
		3:leaf=63.5369949
		4:leaf=174.890213
	2:[f0<1.04460478] yes=5,no=6,missing=5
		5:leaf=489.07019
		6:leaf=581.650391
booster[9]:
0:[f0<-1.26355958] yes=1,no=2,missing=1
	1:[f0<-1.3503871] yes=3,no=4,missing=3
		3:leaf=-63.0482445
		4:leaf=-173.684067
	2:[f0<1.0467658] yes=5,no=6,missing=5
		5:leaf=-487.984314
		6:leaf=-577.7547
